0.10527861
0.20264778
0.11069811
-0.33181655
0.2474008
0.47657207
-0.5789696
0.16112317
0.053656198
0.07871993
-0.16147451
-0.41484773
-0.41033593
-0.06303406
-0.16831473
0.47634712
0.13489318
0.15636575
-0.59516746
-0.6986876
-0.042151053
-0.7357419
-0.5233819
-1.0009598
-0.55993
0.15645875
-0.6984649
-1.3071147
-0.26815653
0.37962878
-1.0903697
0.48901975
-0.026497921
0.33039367
0.3494812
0.6159747
0.27214122
0.94214576
-0.75115615
0.2621875
-0.6136588
-0.13365857
-0.26846772
-0.19930428
-0.09157427
-0.5142416
0.33508426
0.5846229
0.75086457
0.52656734
0.30128235
-0.62060326
-0.0074148374
0.21614337
-13.604502
0.14206459
-1.4128736
1.4592719
1.4995675
1.8309872
0.8674887
1.2196535
1.0395908
1.307777
-1.9525944
-0.54328257
0.29659542
-0.012645605
0.010028549
0.32489392
-0.34264606
-0.12807395
0.25437006
-0.07277612
-0.38973665
0.39363858
-0.14691378
0.13202596
-0.022484003
-0.24770515
0.8814081
0.11122412
0.03901859
-0.52149945
-0.62505394
-0.0422647
-0.9931379
-0.36733902
-0.574522
-0.34342742
0.47926506
0.51799506
-0.7485548
-0.13161145
-0.8205534
0.54508597
0.70969176
-0.3304696
-0.65172505
0.44053465
0.26451838
0.5810113
0.78697324
-0.3297313
0.28913754
0.5548995
0.31906733
0.11488156
-0.5585161
0.65888524
-0.6550056
-0.2656241
0.8667413
0.78382105
0.5109991
0.51877505
-0.1752684
0.32879862
0.07559911
-0.1018685
0.18561083
0.07033955
0.22525351
-0.41471493
-0.03488995
-0.016881932
0.25653127
0.30260062
0.3022585
-0.34864548
0.14302583
-0.38608012
0.22521007
0.074581236
-1.9919358
0.8093091
0.5162772
-1.3925734
0.88468105
0.9911336
1.1614592
0.57914615
-0.46736056
0.6148154
0.5749274
0.22870368
-0.12825325
-0.8322168
-0.25551555
-0.058629736
-0.3945818
0.013496402
0.30031988
0.32804778
0.29376462
0.41297463
-0.05214174
0.70661217
-0.09094733
-0.00902781
-0.5037547
0.042298447
0.0773174
0.035732012
-0.008652994
0.02655273
0.09775487
0.008938626
1.1088618
